%YAML:1.0
my_svm: !!opencv-ml-svm
   svm_type: C_SVC
   kernel: { type:LINEAR }
   C: 2.6699999999999999e+00
   term_criteria: { epsilon:1.1920928955078125e-07, iterations:1000 }
   var_all: 64
   var_count: 64
   class_count: 2
   class_labels: !!opencv-matrix
      rows: 1
      cols: 2
      dt: i
      data: [ 0, 1 ]
   sv_total: 1
   support_vectors:
      - [ 7.52041416e-08, 1.78767623e-09, 0., 0., 1.47160302e-08, 0., 0.,
          0., -5.80892525e-08, -6.93720281e-09, 0., 2.65940940e-07,
          1.10715314e-06, 0., 6.93720281e-09, 0., 7.51321750e-07,
          -6.17200797e-08, 2.30285711e-08, 4.15723544e-09,
          9.26713710e-07, 1.43928020e-07, 1.59272048e-07,
          -1.03048428e-07, -6.07524981e-08, -8.17422290e-08,
          2.03481356e-08, 5.85566973e-08, 1.01216619e-06, 6.57018049e-08,
          1.72932644e-07, 5.06843669e-08, -3.09841397e-08,
          -2.50513580e-07, -1.74715851e-08, 2.67514615e-08,
          7.75760839e-07, 9.33337074e-10, 4.64037564e-09, 7.72209034e-08,
          1.03487878e-07, -3.43084032e-08, 6.02718497e-09,
          4.40092890e-06, 1.80776988e-05, 3.31819585e-08,
          -1.01685336e-08, -1.03346922e-08, 2.87367857e-06,
          -6.86942371e-07, -3.18794332e-06, -4.01210400e-06,
          5.44262457e-06, 1.01318278e-06, -3.25431370e-06,
          3.00274496e-06, 8.86839371e-06, 6.31110993e-07,
          -3.91582898e-06, -4.98076861e-06, 7.07936624e-06,
          2.04253115e-06, -1.48725860e-06, -1.22875440e-06 ]
   decision_functions:
      -
         sv_count: 1
         rho: 2.4335940516786163e+00
         alpha: [ 1. ]
         index: [ 0 ]
